0.17555505533057314
-0.6957800683732067
-0.15163037529490575
0.9340566732284501
-0.9543498571232136
-0.660794449743485
0.3907283023214063
-0.45352995226570325
0.6609156561971536
-0.16037968029871896
0.1472247319194473
-0.9554936436428962
-0.549254746444146
-0.08508643403236693
0.402188869380558
0.41608179077117424
-0.10684609433505554
-0.1231159384728191
-0.12318003144918199
0.05191490481092553
0.9083450798419281
-0.40223315752797184
0.9191297022018907
-0.024176505001242354
-0.04439653937448851
0.6646164945647366
0.6703954668729601
0.8474894689098003
0.6206510686695339
0.19991130746684416
0.5446852326460825
0.4786691053871335
0.286368480312734
-0.7165233771120261
-0.9716442435081616
0.24277130576581407
0.3089160840787908
-0.2245767760852
-0.2643139503955192
0.7905426224039429
-0.060662868953170745
0.3839841529122372
-0.31999529227791124
0.6681113629205397
-0.10210951040968075
0.015282741186861681
0.6586590187753569
0.9495657498725079
0.9225237781753259
-0.4335418704836822
0.7219175261145874
-0.6721011386815046
-0.025725735431098018
-0.5275099595989889
-0.4073293399034703
-0.42461987215318975
0.1599176202785546
-0.9352544216088416
-0.6928563297748913
-0.0606943206673054
-0.3733751239060694
0.8202952748709988
0.6955857788989346
-0.2404240863969893
-0.7488424745172246
-0.2530656847330284
-0.005181058908425795
-0.29625744802921417
-0.4610767490450913
-0.6439373361504632
-0.697687334472725
-0.436575666103562
-0.3923100171060647
0.43739365077098835
0.6235843231243392
-0.7302303759860205
-0.26058853490919875
0.13437878475162357
0.06628554277100429
-0.8540061100595286
0.8302337950604368
0.2555960832887021
0.417636763447246
-0.5447166883098307
0.22157246650498275
0.13279730830507286
-0.9830422518492599
-0.355184352985382
0.7780158443987777
-0.29280261224513415
0.7804570349482418
-0.366433244164152
-0.6556696280203314
0.6605086297270508
-0.8264974207949911
0.5828091297390023
0.9735899293308938
-0.26743681598499736
0.030918400991732264
0.40178381051419243
